digraph Tree {
node [shape=box] ;
0 [label="X[1] <= 0.5\ngini = 0.473\nsamples = 712\nvalue = [439, 273]"] ;
1 [label="X[0] <= 2.5\ngini = 0.365\nsamples = 254\nvalue = [61, 193]"] ;
0 -> 1 [labeldistance=2.5, labelangle=45, headlabel="True"] ;
2 [label="X[3] <= 28.856\ngini = 0.099\nsamples = 134\nvalue = [7, 127]"] ;
1 -> 2 ;
3 [label="X[3] <= 28.231\ngini = 0.204\nsamples = 52\nvalue = [6, 46]"] ;
2 -> 3 ;
4 [label="X[2] <= 55.5\ngini = 0.177\nsamples = 51\nvalue = [5, 46]"] ;
3 -> 4 ;
5 [label="X[2] <= 27.5\ngini = 0.15\nsamples = 49\nvalue = [4, 45]"] ;
4 -> 5 ;
6 [label="X[2] <= 25.5\ngini = 0.255\nsamples = 20\nvalue = [3, 17]"] ;
5 -> 6 ;
7 [label="X[3] <= 13.396\ngini = 0.111\nsamples = 17\nvalue = [1, 16]"] ;
6 -> 7 ;
8 [label="X[2] <= 22.5\ngini = 0.32\nsamples = 5\nvalue = [1, 4]"] ;
7 -> 8 ;
9 [label="gini = 0.0\nsamples = 3\nvalue = [0, 3]"] ;
8 -> 9 ;
10 [label="gini = 0.5\nsamples = 2\nvalue = [1, 1]"] ;
8 -> 10 ;
11 [label="gini = 0.0\nsamples = 12\nvalue = [0, 12]"] ;
7 -> 11 ;
12 [label="X[3] <= 15.75\ngini = 0.444\nsamples = 3\nvalue = [2, 1]"] ;
6 -> 12 ;
13 [label="gini = 0.0\nsamples = 1\nvalue = [0, 1]"] ;
12 -> 13 ;
14 [label="gini = 0.0\nsamples = 2\nvalue = [2, 0]"] ;
12 -> 14 ;
15 [label="X[2] <= 43.0\ngini = 0.067\nsamples = 29\nvalue = [1, 28]"] ;
5 -> 15 ;
16 [label="gini = 0.0\nsamples = 22\nvalue = [0, 22]"] ;
15 -> 16 ;
17 [label="X[2] <= 44.5\ngini = 0.245\nsamples = 7\nvalue = [1, 6]"] ;
15 -> 17 ;
18 [label="X[3] <= 26.86\ngini = 0.5\nsamples = 2\nvalue = [1, 1]"] ;
17 -> 18 ;
19 [label="gini = 0.0\nsamples = 1\nvalue = [1, 0]"] ;
18 -> 19 ;
20 [label="gini = 0.0\nsamples = 1\nvalue = [0, 1]"] ;
18 -> 20 ;
21 [label="gini = 0.0\nsamples = 5\nvalue = [0, 5]"] ;
17 -> 21 ;
22 [label="X[0] <= 1.5\ngini = 0.5\nsamples = 2\nvalue = [1, 1]"] ;
4 -> 22 ;
23 [label="gini = 0.0\nsamples = 1\nvalue = [0, 1]"] ;
22 -> 23 ;
24 [label="gini = 0.0\nsamples = 1\nvalue = [1, 0]"] ;
22 -> 24 ;
25 [label="gini = 0.0\nsamples = 1\nvalue = [1, 0]"] ;
3 -> 25 ;
26 [label="X[3] <= 149.035\ngini = 0.024\nsamples = 82\nvalue = [1, 81]"] ;
2 -> 26 ;
27 [label="gini = 0.0\nsamples = 67\nvalue = [0, 67]"] ;
26 -> 27 ;
28 [label="X[3] <= 152.506\ngini = 0.124\nsamples = 15\nvalue = [1, 14]"] ;
26 -> 28 ;
29 [label="gini = 0.0\nsamples = 1\nvalue = [1, 0]"] ;
28 -> 29 ;
30 [label="gini = 0.0\nsamples = 14\nvalue = [0, 14]"] ;
28 -> 30 ;
31 [label="X[3] <= 23.7\ngini = 0.495\nsamples = 120\nvalue = [54, 66]"] ;
1 -> 31 ;
32 [label="X[2] <= 36.5\ngini = 0.461\nsamples = 100\nvalue = [36, 64]"] ;
31 -> 32 ;
33 [label="X[3] <= 7.888\ngini = 0.442\nsamples = 94\nvalue = [31, 63]"] ;
32 -> 33 ;
34 [label="X[3] <= 6.987\ngini = 0.368\nsamples = 37\nvalue = [9, 28]"] ;
33 -> 34 ;
35 [label="gini = 0.0\nsamples = 1\nvalue = [1, 0]"] ;
34 -> 35 ;
36 [label="X[2] <= 30.35\ngini = 0.346\nsamples = 36\nvalue = [8, 28]"] ;
34 -> 36 ;
37 [label="X[3] <= 7.523\ngini = 0.32\nsamples = 35\nvalue = [7, 28]"] ;
36 -> 37 ;
38 [label="gini = 0.0\nsamples = 6\nvalue = [0, 6]"] ;
37 -> 38 ;
39 [label="X[3] <= 7.64\ngini = 0.366\nsamples = 29\nvalue = [7, 22]"] ;
37 -> 39 ;
40 [label="X[2] <= 26.35\ngini = 0.444\nsamples = 3\nvalue = [2, 1]"] ;
39 -> 40 ;
41 [label="gini = 0.0\nsamples = 1\nvalue = [0, 1]"] ;
40 -> 41 ;
42 [label="gini = 0.0\nsamples = 2\nvalue = [2, 0]"] ;
40 -> 42 ;
43 [label="X[2] <= 15.0\ngini = 0.311\nsamples = 26\nvalue = [5, 21]"] ;
39 -> 43 ;
44 [label="gini = 0.0\nsamples = 1\nvalue = [1, 0]"] ;
43 -> 44 ;
45 [label="X[3] <= 7.781\ngini = 0.269\nsamples = 25\nvalue = [4, 21]"] ;
43 -> 45 ;
46 [label="X[3] <= 7.744\ngini = 0.346\nsamples = 18\nvalue = [4, 14]"] ;
45 -> 46 ;
47 [label="gini = 0.0\nsamples = 4\nvalue = [0, 4]"] ;
46 -> 47 ;
48 [label="X[2] <= 21.5\ngini = 0.408\nsamples = 14\nvalue = [4, 10]"] ;
46 -> 48 ;
49 [label="X[2] <= 18.5\ngini = 0.5\nsamples = 2\nvalue = [1, 1]"] ;
48 -> 49 ;
50 [label="gini = 0.0\nsamples = 1\nvalue = [0, 1]"] ;
49 -> 50 ;
51 [label="gini = 0.0\nsamples = 1\nvalue = [1, 0]"] ;
49 -> 51 ;
52 [label="X[3] <= 7.763\ngini = 0.375\nsamples = 12\nvalue = [3, 9]"] ;
48 -> 52 ;
53 [label="X[2] <= 25.85\ngini = 0.32\nsamples = 10\nvalue = [2, 8]"] ;
52 -> 53 ;
54 [label="gini = 0.0\nsamples = 1\nvalue = [0, 1]"] ;
53 -> 54 ;
55 [label="gini = 0.346\nsamples = 9\nvalue = [2, 7]"] ;
53 -> 55 ;
56 [label="X[2] <= 23.5\ngini = 0.5\nsamples = 2\nvalue = [1, 1]"] ;
52 -> 56 ;
57 [label="gini = 0.0\nsamples = 1\nvalue = [0, 1]"] ;
56 -> 57 ;
58 [label="gini = 0.0\nsamples = 1\nvalue = [1, 0]"] ;
56 -> 58 ;
59 [label="gini = 0.0\nsamples = 7\nvalue = [0, 7]"] ;
45 -> 59 ;
60 [label="gini = 0.0\nsamples = 1\nvalue = [1, 0]"] ;
36 -> 60 ;
61 [label="X[3] <= 9.84\ngini = 0.474\nsamples = 57\nvalue = [22, 35]"] ;
33 -> 61 ;
62 [label="X[2] <= 19.0\ngini = 0.375\nsamples = 12\nvalue = [9, 3]"] ;
61 -> 62 ;
63 [label="gini = 0.0\nsamples = 2\nvalue = [0, 2]"] ;
62 -> 63 ;
64 [label="X[3] <= 7.988\ngini = 0.18\nsamples = 10\nvalue = [9, 1]"] ;
62 -> 64 ;
65 [label="X[3] <= 7.91\ngini = 0.444\nsamples = 3\nvalue = [2, 1]"] ;
64 -> 65 ;
66 [label="gini = 0.0\nsamples = 1\nvalue = [1, 0]"] ;
65 -> 66 ;
67 [label="X[2] <= 25.5\ngini = 0.5\nsamples = 2\nvalue = [1, 1]"] ;
65 -> 67 ;
68 [label="gini = 0.0\nsamples = 1\nvalue = [1, 0]"] ;
67 -> 68 ;
69 [label="gini = 0.0\nsamples = 1\nvalue = [0, 1]"] ;
67 -> 69 ;
70 [label="gini = 0.0\nsamples = 7\nvalue = [7, 0]"] ;
64 -> 70 ;
71 [label="X[3] <= 13.935\ngini = 0.411\nsamples = 45\nvalue = [13, 32]"] ;
61 -> 71 ;
72 [label="X[3] <= 10.798\ngini = 0.18\nsamples = 10\nvalue = [1, 9]"] ;
71 -> 72 ;
73 [label="X[3] <= 10.152\ngini = 0.5\nsamples = 2\nvalue = [1, 1]"] ;
72 -> 73 ;
74 [label="gini = 0.0\nsamples = 1\nvalue = [0, 1]"] ;
73 -> 74 ;
75 [label="gini = 0.0\nsamples = 1\nvalue = [1, 0]"] ;
73 -> 75 ;
76 [label="gini = 0.0\nsamples = 8\nvalue = [0, 8]"] ;
72 -> 76 ;
77 [label="X[3] <= 14.852\ngini = 0.451\nsamples = 35\nvalue = [12, 23]"] ;
71 -> 77 ;
78 [label="X[2] <= 16.0\ngini = 0.278\nsamples = 6\nvalue = [5, 1]"] ;
77 -> 78 ;
79 [label="X[2] <= 14.75\ngini = 0.5\nsamples = 2\nvalue = [1, 1]"] ;
78 -> 79 ;
80 [label="gini = 0.0\nsamples = 1\nvalue = [1, 0]"] ;
79 -> 80 ;
81 [label="gini = 0.0\nsamples = 1\nvalue = [0, 1]"] ;
79 -> 81 ;
82 [label="gini = 0.0\nsamples = 4\nvalue = [4, 0]"] ;
78 -> 82 ;
83 [label="X[2] <= 21.0\ngini = 0.366\nsamples = 29\nvalue = [7, 22]"] ;
77 -> 83 ;
84 [label="X[2] <= 6.5\ngini = 0.48\nsamples = 10\nvalue = [4, 6]"] ;
83 -> 84 ;
85 [label="X[3] <= 20.167\ngini = 0.245\nsamples = 7\nvalue = [1, 6]"] ;
84 -> 85 ;
86 [label="gini = 0.0\nsamples = 5\nvalue = [0, 5]"] ;
85 -> 86 ;
87 [label="X[3] <= 21.55\ngini = 0.5\nsamples = 2\nvalue = [1, 1]"] ;
85 -> 87 ;
88 [label="gini = 0.0\nsamples = 1\nvalue = [1, 0]"] ;
87 -> 88 ;
89 [label="gini = 0.0\nsamples = 1\nvalue = [0, 1]"] ;
87 -> 89 ;
90 [label="gini = 0.0\nsamples = 3\nvalue = [3, 0]"] ;
84 -> 90 ;
91 [label="X[2] <= 30.35\ngini = 0.266\nsamples = 19\nvalue = [3, 16]"] ;
83 -> 91 ;
92 [label="X[2] <= 27.5\ngini = 0.142\nsamples = 13\nvalue = [1, 12]"] ;
91 -> 92 ;
93 [label="X[2] <= 25.0\ngini = 0.375\nsamples = 4\nvalue = [1, 3]"] ;
92 -> 93 ;
94 [label="gini = 0.0\nsamples = 3\nvalue = [0, 3]"] ;
93 -> 94 ;
95 [label="gini = 0.0\nsamples = 1\nvalue = [1, 0]"] ;
93 -> 95 ;
96 [label="gini = 0.0\nsamples = 9\nvalue = [0, 9]"] ;
92 -> 96 ;
97 [label="X[2] <= 32.5\ngini = 0.444\nsamples = 6\nvalue = [2, 4]"] ;
91 -> 97 ;
98 [label="X[3] <= 19.262\ngini = 0.444\nsamples = 3\nvalue = [2, 1]"] ;
97 -> 98 ;
99 [label="gini = 0.0\nsamples = 2\nvalue = [2, 0]"] ;
98 -> 99 ;
100 [label="gini = 0.0\nsamples = 1\nvalue = [0, 1]"] ;
98 -> 100 ;
101 [label="gini = 0.0\nsamples = 3\nvalue = [0, 3]"] ;
97 -> 101 ;
102 [label="X[2] <= 55.0\ngini = 0.278\nsamples = 6\nvalue = [5, 1]"] ;
32 -> 102 ;
103 [label="gini = 0.0\nsamples = 5\nvalue = [5, 0]"] ;
102 -> 103 ;
104 [label="gini = 0.0\nsamples = 1\nvalue = [0, 1]"] ;
102 -> 104 ;
105 [label="X[3] <= 31.331\ngini = 0.18\nsamples = 20\nvalue = [18, 2]"] ;
31 -> 105 ;
106 [label="gini = 0.0\nsamples = 10\nvalue = [10, 0]"] ;
105 -> 106 ;
107 [label="X[3] <= 32.881\ngini = 0.32\nsamples = 10\nvalue = [8, 2]"] ;
105 -> 107 ;
108 [label="gini = 0.0\nsamples = 2\nvalue = [0, 2]"] ;
107 -> 108 ;
109 [label="gini = 0.0\nsamples = 8\nvalue = [8, 0]"] ;
107 -> 109 ;
110 [label="X[2] <= 6.5\ngini = 0.288\nsamples = 458\nvalue = [378, 80]"] ;
0 -> 110 [labeldistance=2.5, labelangle=-45, headlabel="False"] ;
111 [label="X[0] <= 2.5\ngini = 0.401\nsamples = 18\nvalue = [5, 13]"] ;
110 -> 111 ;
112 [label="gini = 0.0\nsamples = 9\nvalue = [0, 9]"] ;
111 -> 112 ;
113 [label="X[3] <= 20.825\ngini = 0.494\nsamples = 9\nvalue = [5, 4]"] ;
111 -> 113 ;
114 [label="gini = 0.0\nsamples = 4\nvalue = [0, 4]"] ;
113 -> 114 ;
115 [label="gini = 0.0\nsamples = 5\nvalue = [5, 0]"] ;
113 -> 115 ;
116 [label="X[0] <= 1.5\ngini = 0.258\nsamples = 440\nvalue = [373, 67]"] ;
110 -> 116 ;
117 [label="X[3] <= 387.665\ngini = 0.427\nsamples = 97\nvalue = [67, 30]"] ;
116 -> 117 ;
118 [label="X[2] <= 17.5\ngini = 0.416\nsamples = 95\nvalue = [67, 28]"] ;
117 -> 118 ;
119 [label="gini = 0.0\nsamples = 2\nvalue = [0, 2]"] ;
118 -> 119 ;
120 [label="X[3] <= 98.752\ngini = 0.403\nsamples = 93\nvalue = [67, 26]"] ;
118 -> 120 ;
121 [label="X[3] <= 26.144\ngini = 0.436\nsamples = 81\nvalue = [55, 26]"] ;
120 -> 121 ;
122 [label="gini = 0.0\nsamples = 9\nvalue = [9, 0]"] ;
121 -> 122 ;
123 [label="X[3] <= 26.469\ngini = 0.461\nsamples = 72\nvalue = [46, 26]"] ;
121 -> 123 ;
124 [label="gini = 0.0\nsamples = 3\nvalue = [0, 3]"] ;
123 -> 124 ;
125 [label="X[2] <= 60.5\ngini = 0.444\nsamples = 69\nvalue = [46, 23]"] ;
123 -> 125 ;
126 [label="X[3] <= 27.135\ngini = 0.467\nsamples = 62\nvalue = [39, 23]"] ;
125 -> 126 ;
127 [label="X[2] <= 55.5\ngini = 0.444\nsamples = 9\nvalue = [3, 6]"] ;
126 -> 127 ;
128 [label="X[2] <= 46.5\ngini = 0.375\nsamples = 8\nvalue = [2, 6]"] ;
127 -> 128 ;
129 [label="X[2] <= 28.85\ngini = 0.444\nsamples = 6\nvalue = [2, 4]"] ;
128 -> 129 ;
130 [label="gini = 0.0\nsamples = 1\nvalue = [0, 1]"] ;
129 -> 130 ;
131 [label="X[2] <= 31.85\ngini = 0.48\nsamples = 5\nvalue = [2, 3]"] ;
129 -> 131 ;
132 [label="gini = 0.0\nsamples = 1\nvalue = [1, 0]"] ;
131 -> 132 ;
133 [label="X[2] <= 40.0\ngini = 0.375\nsamples = 4\nvalue = [1, 3]"] ;
131 -> 133 ;
134 [label="gini = 0.0\nsamples = 2\nvalue = [0, 2]"] ;
133 -> 134 ;
135 [label="gini = 0.5\nsamples = 2\nvalue = [1, 1]"] ;
133 -> 135 ;
136 [label="gini = 0.0\nsamples = 2\nvalue = [0, 2]"] ;
128 -> 136 ;
137 [label="gini = 0.0\nsamples = 1\nvalue = [1, 0]"] ;
127 -> 137 ;
138 [label="X[2] <= 28.5\ngini = 0.436\nsamples = 53\nvalue = [36, 17]"] ;
126 -> 138 ;
139 [label="X[2] <= 24.5\ngini = 0.494\nsamples = 9\nvalue = [4, 5]"] ;
138 -> 139 ;
140 [label="gini = 0.0\nsamples = 3\nvalue = [3, 0]"] ;
139 -> 140 ;
141 [label="X[2] <= 27.5\ngini = 0.278\nsamples = 6\nvalue = [1, 5]"] ;
139 -> 141 ;
142 [label="gini = 0.0\nsamples = 4\nvalue = [0, 4]"] ;
141 -> 142 ;
143 [label="X[3] <= 41.3\ngini = 0.5\nsamples = 2\nvalue = [1, 1]"] ;
141 -> 143 ;
144 [label="gini = 0.0\nsamples = 1\nvalue = [0, 1]"] ;
143 -> 144 ;
145 [label="gini = 0.0\nsamples = 1\nvalue = [1, 0]"] ;
143 -> 145 ;
146 [label="X[2] <= 59.0\ngini = 0.397\nsamples = 44\nvalue = [32, 12]"] ;
138 -> 146 ;
147 [label="X[3] <= 29.1\ngini = 0.381\nsamples = 43\nvalue = [32, 11]"] ;
146 -> 147 ;
148 [label="gini = 0.0\nsamples = 4\nvalue = [4, 0]"] ;
147 -> 148 ;
149 [label="X[3] <= 30.598\ngini = 0.405\nsamples = 39\nvalue = [28, 11]"] ;
147 -> 149 ;
150 [label="X[2] <= 34.5\ngini = 0.5\nsamples = 6\nvalue = [3, 3]"] ;
149 -> 150 ;
151 [label="X[2] <= 29.35\ngini = 0.375\nsamples = 4\nvalue = [1, 3]"] ;
150 -> 151 ;
152 [label="gini = 0.0\nsamples = 1\nvalue = [1, 0]"] ;
151 -> 152 ;
153 [label="gini = 0.0\nsamples = 3\nvalue = [0, 3]"] ;
151 -> 153 ;
154 [label="gini = 0.0\nsamples = 2\nvalue = [2, 0]"] ;
150 -> 154 ;
155 [label="X[2] <= 47.5\ngini = 0.367\nsamples = 33\nvalue = [25, 8]"] ;
149 -> 155 ;
156 [label="X[2] <= 40.0\ngini = 0.287\nsamples = 23\nvalue = [19, 4]"] ;
155 -> 156 ;
157 [label="X[2] <= 36.5\ngini = 0.375\nsamples = 16\nvalue = [12, 4]"] ;
156 -> 157 ;
158 [label="X[3] <= 37.55\ngini = 0.26\nsamples = 13\nvalue = [11, 2]"] ;
157 -> 158 ;
159 [label="X[3] <= 35.25\ngini = 0.444\nsamples = 3\nvalue = [2, 1]"] ;
158 -> 159 ;
160 [label="gini = 0.0\nsamples = 2\nvalue = [2, 0]"] ;
159 -> 160 ;
161 [label="gini = 0.0\nsamples = 1\nvalue = [0, 1]"] ;
159 -> 161 ;
162 [label="X[3] <= 54.5\ngini = 0.18\nsamples = 10\nvalue = [9, 1]"] ;
158 -> 162 ;
163 [label="gini = 0.0\nsamples = 7\nvalue = [7, 0]"] ;
162 -> 163 ;
164 [label="X[3] <= 61.8\ngini = 0.444\nsamples = 3\nvalue = [2, 1]"] ;
162 -> 164 ;
165 [label="gini = 0.0\nsamples = 1\nvalue = [0, 1]"] ;
164 -> 165 ;
166 [label="gini = 0.0\nsamples = 2\nvalue = [2, 0]"] ;
164 -> 166 ;
167 [label="X[3] <= 52.827\ngini = 0.444\nsamples = 3\nvalue = [1, 2]"] ;
157 -> 167 ;
168 [label="gini = 0.0\nsamples = 1\nvalue = [0, 1]"] ;
167 -> 168 ;
169 [label="X[3] <= 71.55\ngini = 0.5\nsamples = 2\nvalue = [1, 1]"] ;
167 -> 169 ;
170 [label="gini = 0.0\nsamples = 1\nvalue = [1, 0]"] ;
169 -> 170 ;
171 [label="gini = 0.0\nsamples = 1\nvalue = [0, 1]"] ;
169 -> 171 ;
172 [label="gini = 0.0\nsamples = 7\nvalue = [7, 0]"] ;
156 -> 172 ;
173 [label="X[2] <= 49.5\ngini = 0.48\nsamples = 10\nvalue = [6, 4]"] ;
155 -> 173 ;
174 [label="gini = 0.0\nsamples = 3\nvalue = [0, 3]"] ;
173 -> 174 ;
175 [label="X[3] <= 43.681\ngini = 0.245\nsamples = 7\nvalue = [6, 1]"] ;
173 -> 175 ;
176 [label="X[3] <= 33.098\ngini = 0.5\nsamples = 2\nvalue = [1, 1]"] ;
175 -> 176 ;
177 [label="gini = 0.0\nsamples = 1\nvalue = [1, 0]"] ;
176 -> 177 ;
178 [label="gini = 0.0\nsamples = 1\nvalue = [0, 1]"] ;
176 -> 178 ;
179 [label="gini = 0.0\nsamples = 5\nvalue = [5, 0]"] ;
175 -> 179 ;
180 [label="gini = 0.0\nsamples = 1\nvalue = [0, 1]"] ;
146 -> 180 ;
181 [label="gini = 0.0\nsamples = 7\nvalue = [7, 0]"] ;
125 -> 181 ;
182 [label="gini = 0.0\nsamples = 12\nvalue = [12, 0]"] ;
120 -> 182 ;
183 [label="gini = 0.0\nsamples = 2\nvalue = [0, 2]"] ;
117 -> 183 ;
184 [label="X[3] <= 7.91\ngini = 0.192\nsamples = 343\nvalue = [306, 37]"] ;
116 -> 184 ;
185 [label="X[2] <= 29.85\ngini = 0.125\nsamples = 134\nvalue = [125, 9]"] ;
184 -> 185 ;
186 [label="X[3] <= 7.798\ngini = 0.155\nsamples = 106\nvalue = [97, 9]"] ;
185 -> 186 ;
187 [label="X[3] <= 7.763\ngini = 0.21\nsamples = 67\nvalue = [59, 8]"] ;
186 -> 187 ;
188 [label="X[3] <= 7.24\ngini = 0.165\nsamples = 55\nvalue = [50, 5]"] ;
187 -> 188 ;
189 [label="X[3] <= 7.175\ngini = 0.231\nsamples = 30\nvalue = [26, 4]"] ;
188 -> 189 ;
190 [label="X[2] <= 26.0\ngini = 0.111\nsamples = 17\nvalue = [16, 1]"] ;
189 -> 190 ;
191 [label="gini = 0.0\nsamples = 10\nvalue = [10, 0]"] ;
190 -> 191 ;
192 [label="X[2] <= 28.0\ngini = 0.245\nsamples = 7\nvalue = [6, 1]"] ;
190 -> 192 ;
193 [label="gini = 0.0\nsamples = 1\nvalue = [0, 1]"] ;
192 -> 193 ;
194 [label="gini = 0.0\nsamples = 6\nvalue = [6, 0]"] ;
192 -> 194 ;
195 [label="X[2] <= 22.75\ngini = 0.355\nsamples = 13\nvalue = [10, 3]"] ;
189 -> 195 ;
196 [label="X[2] <= 18.5\ngini = 0.5\nsamples = 4\nvalue = [2, 2]"] ;
195 -> 196 ;
197 [label="gini = 0.0\nsamples = 2\nvalue = [2, 0]"] ;
196 -> 197 ;
198 [label="gini = 0.0\nsamples = 2\nvalue = [0, 2]"] ;
196 -> 198 ;
199 [label="X[3] <= 7.227\ngini = 0.198\nsamples = 9\nvalue = [8, 1]"] ;
195 -> 199 ;
200 [label="gini = 0.0\nsamples = 4\nvalue = [4, 0]"] ;
199 -> 200 ;
201 [label="X[2] <= 26.6\ngini = 0.32\nsamples = 5\nvalue = [4, 1]"] ;
199 -> 201 ;
202 [label="gini = 0.0\nsamples = 1\nvalue = [1, 0]"] ;
201 -> 202 ;
203 [label="gini = 0.375\nsamples = 4\nvalue = [3, 1]"] ;
201 -> 203 ;
204 [label="X[3] <= 7.746\ngini = 0.077\nsamples = 25\nvalue = [24, 1]"] ;
188 -> 204 ;
205 [label="gini = 0.0\nsamples = 17\nvalue = [17, 0]"] ;
204 -> 205 ;
206 [label="gini = 0.219\nsamples = 8\nvalue = [7, 1]"] ;
204 -> 206 ;
207 [label="X[2] <= 29.35\ngini = 0.375\nsamples = 12\nvalue = [9, 3]"] ;
187 -> 207 ;
208 [label="X[2] <= 20.0\ngini = 0.298\nsamples = 11\nvalue = [9, 2]"] ;
207 -> 208 ;
209 [label="gini = 0.0\nsamples = 3\nvalue = [3, 0]"] ;
208 -> 209 ;
210 [label="X[2] <= 25.5\ngini = 0.375\nsamples = 8\nvalue = [6, 2]"] ;
208 -> 210 ;
211 [label="X[2] <= 21.5\ngini = 0.444\nsamples = 6\nvalue = [4, 2]"] ;
210 -> 211 ;
212 [label="X[3] <= 7.785\ngini = 0.5\nsamples = 2\nvalue = [1, 1]"] ;
211 -> 212 ;
213 [label="gini = 0.0\nsamples = 1\nvalue = [1, 0]"] ;
212 -> 213 ;
214 [label="gini = 0.0\nsamples = 1\nvalue = [0, 1]"] ;
212 -> 214 ;
215 [label="X[3] <= 7.785\ngini = 0.375\nsamples = 4\nvalue = [3, 1]"] ;
211 -> 215 ;
216 [label="gini = 0.5\nsamples = 2\nvalue = [1, 1]"] ;
215 -> 216 ;
217 [label="gini = 0.0\nsamples = 2\nvalue = [2, 0]"] ;
215 -> 217 ;
218 [label="gini = 0.0\nsamples = 2\nvalue = [2, 0]"] ;
210 -> 218 ;
219 [label="gini = 0.0\nsamples = 1\nvalue = [0, 1]"] ;
207 -> 219 ;
220 [label="X[2] <= 28.5\ngini = 0.05\nsamples = 39\nvalue = [38, 1]"] ;
186 -> 220 ;
221 [label="gini = 0.0\nsamples = 21\nvalue = [21, 0]"] ;
220 -> 221 ;
222 [label="X[2] <= 29.35\ngini = 0.105\nsamples = 18\nvalue = [17, 1]"] ;
220 -> 222 ;
223 [label="X[3] <= 7.885\ngini = 0.5\nsamples = 2\nvalue = [1, 1]"] ;
222 -> 223 ;
224 [label="gini = 0.0\nsamples = 1\nvalue = [1, 0]"] ;
223 -> 224 ;
225 [label="gini = 0.0\nsamples = 1\nvalue = [0, 1]"] ;
223 -> 225 ;
226 [label="gini = 0.0\nsamples = 16\nvalue = [16, 0]"] ;
222 -> 226 ;
227 [label="gini = 0.0\nsamples = 28\nvalue = [28, 0]"] ;
185 -> 227 ;
228 [label="X[3] <= 7.988\ngini = 0.232\nsamples = 209\nvalue = [181, 28]"] ;
184 -> 228 ;
229 [label="X[2] <= 38.0\ngini = 0.486\nsamples = 12\nvalue = [7, 5]"] ;
228 -> 229 ;
230 [label="X[2] <= 29.5\ngini = 0.42\nsamples = 10\nvalue = [7, 3]"] ;
229 -> 230 ;
231 [label="X[2] <= 20.5\ngini = 0.32\nsamples = 5\nvalue = [4, 1]"] ;
230 -> 231 ;
232 [label="gini = 0.5\nsamples = 2\nvalue = [1, 1]"] ;
231 -> 232 ;
233 [label="gini = 0.0\nsamples = 3\nvalue = [3, 0]"] ;
231 -> 233 ;
234 [label="X[2] <= 31.5\ngini = 0.48\nsamples = 5\nvalue = [3, 2]"] ;
230 -> 234 ;
235 [label="gini = 0.0\nsamples = 1\nvalue = [0, 1]"] ;
234 -> 235 ;
236 [label="X[2] <= 34.5\ngini = 0.375\nsamples = 4\nvalue = [3, 1]"] ;
234 -> 236 ;
237 [label="gini = 0.444\nsamples = 3\nvalue = [2, 1]"] ;
236 -> 237 ;
238 [label="gini = 0.0\nsamples = 1\nvalue = [1, 0]"] ;
236 -> 238 ;
239 [label="gini = 0.0\nsamples = 2\nvalue = [0, 2]"] ;
229 -> 239 ;
240 [label="X[2] <= 9.5\ngini = 0.206\nsamples = 197\nvalue = [174, 23]"] ;
228 -> 240 ;
241 [label="X[0] <= 2.5\ngini = 0.444\nsamples = 6\nvalue = [4, 2]"] ;
240 -> 241 ;
242 [label="gini = 0.0\nsamples = 1\nvalue = [0, 1]"] ;
241 -> 242 ;
243 [label="X[3] <= 24.825\ngini = 0.32\nsamples = 5\nvalue = [4, 1]"] ;
241 -> 243 ;
244 [label="gini = 0.0\nsamples = 1\nvalue = [0, 1]"] ;
243 -> 244 ;
245 [label="gini = 0.0\nsamples = 4\nvalue = [4, 0]"] ;
243 -> 245 ;
246 [label="X[2] <= 25.5\ngini = 0.196\nsamples = 191\nvalue = [170, 21]"] ;
240 -> 246 ;
247 [label="X[2] <= 20.5\ngini = 0.097\nsamples = 59\nvalue = [56, 3]"] ;
246 -> 247 ;
248 [label="X[3] <= 8.104\ngini = 0.17\nsamples = 32\nvalue = [29, 3]"] ;
247 -> 248 ;
249 [label="X[2] <= 18.0\ngini = 0.444\nsamples = 3\nvalue = [2, 1]"] ;
248 -> 249 ;
250 [label="gini = 0.5\nsamples = 2\nvalue = [1, 1]"] ;
249 -> 250 ;
251 [label="gini = 0.0\nsamples = 1\nvalue = [1, 0]"] ;
249 -> 251 ;
252 [label="X[2] <= 18.5\ngini = 0.128\nsamples = 29\nvalue = [27, 2]"] ;
248 -> 252 ;
253 [label="gini = 0.0\nsamples = 19\nvalue = [19, 0]"] ;
252 -> 253 ;
254 [label="X[3] <= 10.335\ngini = 0.32\nsamples = 10\nvalue = [8, 2]"] ;
252 -> 254 ;
255 [label="gini = 0.0\nsamples = 4\nvalue = [4, 0]"] ;
254 -> 255 ;
256 [label="X[2] <= 19.5\ngini = 0.444\nsamples = 6\nvalue = [4, 2]"] ;
254 -> 256 ;
257 [label="X[3] <= 11.75\ngini = 0.32\nsamples = 5\nvalue = [4, 1]"] ;
256 -> 257 ;
258 [label="gini = 0.5\nsamples = 2\nvalue = [1, 1]"] ;
257 -> 258 ;
259 [label="gini = 0.0\nsamples = 3\nvalue = [3, 0]"] ;
257 -> 259 ;
260 [label="gini = 0.0\nsamples = 1\nvalue = [0, 1]"] ;
256 -> 260 ;
261 [label="gini = 0.0\nsamples = 27\nvalue = [27, 0]"] ;
247 -> 261 ;
262 [label="X[2] <= 32.25\ngini = 0.236\nsamples = 132\nvalue = [114, 18]"] ;
246 -> 262 ;
263 [label="X[2] <= 31.5\ngini = 0.311\nsamples = 78\nvalue = [63, 15]"] ;
262 -> 263 ;
264 [label="X[3] <= 8.081\ngini = 0.278\nsamples = 72\nvalue = [60, 12]"] ;
263 -> 264 ;
265 [label="gini = 0.0\nsamples = 13\nvalue = [13, 0]"] ;
264 -> 265 ;
266 [label="X[3] <= 8.285\ngini = 0.324\nsamples = 59\nvalue = [47, 12]"] ;
264 -> 266 ;
267 [label="gini = 0.0\nsamples = 1\nvalue = [0, 1]"] ;
266 -> 267 ;
268 [label="X[3] <= 15.373\ngini = 0.307\nsamples = 58\nvalue = [47, 11]"] ;
266 -> 268 ;
269 [label="X[3] <= 15.173\ngini = 0.383\nsamples = 31\nvalue = [23, 8]"] ;
268 -> 269 ;
270 [label="X[3] <= 14.158\ngini = 0.328\nsamples = 29\nvalue = [23, 6]"] ;
269 -> 270 ;
271 [label="X[3] <= 13.431\ngini = 0.375\nsamples = 24\nvalue = [18, 6]"] ;
270 -> 271 ;
272 [label="X[2] <= 30.5\ngini = 0.34\nsamples = 23\nvalue = [18, 5]"] ;
271 -> 272 ;
273 [label="X[3] <= 10.0\ngini = 0.308\nsamples = 21\nvalue = [17, 4]"] ;
272 -> 273 ;
274 [label="X[2] <= 29.85\ngini = 0.42\nsamples = 10\nvalue = [7, 3]"] ;
273 -> 274 ;
275 [label="X[2] <= 29.35\ngini = 0.346\nsamples = 9\nvalue = [7, 2]"] ;
274 -> 275 ;
276 [label="X[2] <= 26.5\ngini = 0.48\nsamples = 5\nvalue = [3, 2]"] ;
275 -> 276 ;
277 [label="gini = 0.0\nsamples = 1\nvalue = [1, 0]"] ;
276 -> 277 ;
278 [label="X[3] <= 9.073\ngini = 0.5\nsamples = 4\nvalue = [2, 2]"] ;
276 -> 278 ;
279 [label="gini = 0.0\nsamples = 1\nvalue = [0, 1]"] ;
278 -> 279 ;
280 [label="X[2] <= 28.5\ngini = 0.444\nsamples = 3\nvalue = [2, 1]"] ;
278 -> 280 ;
281 [label="gini = 0.0\nsamples = 1\nvalue = [1, 0]"] ;
280 -> 281 ;
282 [label="X[3] <= 9.492\ngini = 0.5\nsamples = 2\nvalue = [1, 1]"] ;
280 -> 282 ;
283 [label="gini = 0.0\nsamples = 1\nvalue = [1, 0]"] ;
282 -> 283 ;
284 [label="gini = 0.0\nsamples = 1\nvalue = [0, 1]"] ;
282 -> 284 ;
285 [label="gini = 0.0\nsamples = 4\nvalue = [4, 0]"] ;
275 -> 285 ;
286 [label="gini = 0.0\nsamples = 1\nvalue = [0, 1]"] ;
274 -> 286 ;
287 [label="X[2] <= 29.35\ngini = 0.165\nsamples = 11\nvalue = [10, 1]"] ;
273 -> 287 ;
288 [label="gini = 0.0\nsamples = 6\nvalue = [6, 0]"] ;
287 -> 288 ;
289 [label="X[2] <= 29.85\ngini = 0.32\nsamples = 5\nvalue = [4, 1]"] ;
287 -> 289 ;
290 [label="gini = 0.0\nsamples = 1\nvalue = [0, 1]"] ;
289 -> 290 ;
291 [label="gini = 0.0\nsamples = 4\nvalue = [4, 0]"] ;
289 -> 291 ;
292 [label="X[3] <= 11.75\ngini = 0.5\nsamples = 2\nvalue = [1, 1]"] ;
272 -> 292 ;
293 [label="gini = 0.0\nsamples = 1\nvalue = [1, 0]"] ;
292 -> 293 ;
294 [label="gini = 0.0\nsamples = 1\nvalue = [0, 1]"] ;
292 -> 294 ;
295 [label="gini = 0.0\nsamples = 1\nvalue = [0, 1]"] ;
271 -> 295 ;
296 [label="gini = 0.0\nsamples = 5\nvalue = [5, 0]"] ;
270 -> 296 ;
297 [label="gini = 0.0\nsamples = 2\nvalue = [0, 2]"] ;
269 -> 297 ;
298 [label="X[2] <= 26.5\ngini = 0.198\nsamples = 27\nvalue = [24, 3]"] ;
268 -> 298 ;
299 [label="X[3] <= 19.681\ngini = 0.5\nsamples = 2\nvalue = [1, 1]"] ;
298 -> 299 ;
300 [label="gini = 0.0\nsamples = 1\nvalue = [0, 1]"] ;
299 -> 300 ;
301 [label="gini = 0.0\nsamples = 1\nvalue = [1, 0]"] ;
299 -> 301 ;
302 [label="X[3] <= 46.75\ngini = 0.147\nsamples = 25\nvalue = [23, 2]"] ;
298 -> 302 ;
303 [label="X[3] <= 23.35\ngini = 0.095\nsamples = 20\nvalue = [19, 1]"] ;
302 -> 303 ;
304 [label="X[3] <= 22.887\ngini = 0.18\nsamples = 10\nvalue = [9, 1]"] ;
303 -> 304 ;
305 [label="gini = 0.0\nsamples = 9\nvalue = [9, 0]"] ;
304 -> 305 ;
306 [label="gini = 0.0\nsamples = 1\nvalue = [0, 1]"] ;
304 -> 306 ;
307 [label="gini = 0.0\nsamples = 10\nvalue = [10, 0]"] ;
303 -> 307 ;
308 [label="X[3] <= 63.023\ngini = 0.32\nsamples = 5\nvalue = [4, 1]"] ;
302 -> 308 ;
309 [label="X[2] <= 28.85\ngini = 0.444\nsamples = 3\nvalue = [2, 1]"] ;
308 -> 309 ;
310 [label="gini = 0.0\nsamples = 1\nvalue = [1, 0]"] ;
309 -> 310 ;
311 [label="gini = 0.5\nsamples = 2\nvalue = [1, 1]"] ;
309 -> 311 ;
312 [label="gini = 0.0\nsamples = 2\nvalue = [2, 0]"] ;
308 -> 312 ;
313 [label="X[3] <= 9.275\ngini = 0.5\nsamples = 6\nvalue = [3, 3]"] ;
263 -> 313 ;
314 [label="gini = 0.0\nsamples = 1\nvalue = [0, 1]"] ;
313 -> 314 ;
315 [label="X[3] <= 20.925\ngini = 0.48\nsamples = 5\nvalue = [3, 2]"] ;
313 -> 315 ;
316 [label="gini = 0.0\nsamples = 2\nvalue = [2, 0]"] ;
315 -> 316 ;
317 [label="X[3] <= 64.998\ngini = 0.444\nsamples = 3\nvalue = [1, 2]"] ;
315 -> 317 ;
318 [label="gini = 0.0\nsamples = 2\nvalue = [0, 2]"] ;
317 -> 318 ;
319 [label="gini = 0.0\nsamples = 1\nvalue = [1, 0]"] ;
317 -> 319 ;
320 [label="X[3] <= 13.25\ngini = 0.105\nsamples = 54\nvalue = [51, 3]"] ;
262 -> 320 ;
321 [label="X[3] <= 12.938\ngini = 0.18\nsamples = 30\nvalue = [27, 3]"] ;
320 -> 321 ;
322 [label="X[3] <= 8.227\ngini = 0.091\nsamples = 21\nvalue = [20, 1]"] ;
321 -> 322 ;
323 [label="X[2] <= 44.5\ngini = 0.278\nsamples = 6\nvalue = [5, 1]"] ;
322 -> 323 ;
324 [label="gini = 0.0\nsamples = 4\nvalue = [4, 0]"] ;
323 -> 324 ;
325 [label="X[2] <= 50.25\ngini = 0.5\nsamples = 2\nvalue = [1, 1]"] ;
323 -> 325 ;
326 [label="gini = 0.0\nsamples = 1\nvalue = [0, 1]"] ;
325 -> 326 ;
327 [label="gini = 0.0\nsamples = 1\nvalue = [1, 0]"] ;
325 -> 327 ;
328 [label="gini = 0.0\nsamples = 15\nvalue = [15, 0]"] ;
322 -> 328 ;
329 [label="X[2] <= 46.0\ngini = 0.346\nsamples = 9\nvalue = [7, 2]"] ;
321 -> 329 ;
330 [label="X[2] <= 40.5\ngini = 0.408\nsamples = 7\nvalue = [5, 2]"] ;
329 -> 330 ;
331 [label="X[2] <= 35.0\ngini = 0.32\nsamples = 5\nvalue = [4, 1]"] ;
330 -> 331 ;
332 [label="gini = 0.444\nsamples = 3\nvalue = [2, 1]"] ;
331 -> 332 ;
333 [label="gini = 0.0\nsamples = 2\nvalue = [2, 0]"] ;
331 -> 333 ;
334 [label="gini = 0.5\nsamples = 2\nvalue = [1, 1]"] ;
330 -> 334 ;
335 [label="gini = 0.0\nsamples = 2\nvalue = [2, 0]"] ;
329 -> 335 ;
336 [label="gini = 0.0\nsamples = 24\nvalue = [24, 0]"] ;
320 -> 336 ;
}
